svm_type c_svc
kernel_type linear
nr_class 3
total_sv 6
rho 3.4873580282095302 1.0254513767912001 1.0874496928156723
label 2 1 0
probA -1.5500381706358242 -2.5121354699726473 -1.1836955475457418
probB -0.7046325886174251 -0.16141880019610297 0.00615200992846282
nr_sv 3 2 1
SV
7.698794786913612E-6 4.8165805026766315E-6 0:111.25256 1:257.077405 2:392.26001 3:-16.32524723 4:-8.8818297584 5:1.1093653254
2.6851642377052837E-5 0.0 0:235.918647 1:297.69503 2:315.36424 3:-8.7929211182 4:-6.019537864 5:3.6705744882
9.329923707074066E-6 4.10682005511798E-6 0:173.124723 1:324.48017 2:314.92132 3:-13.52860427 4:-2.874083392 5:0.3200808126
-4.3880360871040515E-5 0.0 0:145.836804 1:164.21829 2:170.33548 3:-10.050176346 4:-0.383826448 5:0.1458308334
-0.0 0.003210451273390426 0:15.31092 1:17.5435132 2:13.563152 3:-9.7453945 4:0.6856155696 5:-1.651448504
-8.923400557794611E-6 -0.003210451273390426 0:4.2975921 1:5.1535191 2:2.65157 3:0.1946725406 4:-0.1111867273 5:9.73527899
