svm_type c_svc
kernel_type linear
nr_class 3
total_sv 5
rho -0.32112521516030496 -0.11027100687825941 4.999084680171822
label 0 2 1
probA -1.663750205462705 -2.0452032553053345 -1.3745990054574102
probB -0.18214678422954034 0.23649549483094853 0.07960813563128555
nr_sv 1 2 2
SV
1.3387011032134813E-5 8.517586733403135E-6 0:-182.472287005 1:42.286988402 2:401.8051063
-1.3387011032134813E-5 2.3559082407910244E-5 0:-413.00637245 1:-189.21854404 2:195.26749765
-0.0 6.497070363215475E-5 0:-676.4302135 1:-143.7041696 2:16.00404063
-0.0 -8.852978604006498E-5 0:-524.8449249 1:-78.9942919037 2:-36.5349192608
-8.517586733403135E-6 -0.0 0:-470.0817526 1:36.145861693 2:11.86745941